<?xml version="1.0"?>
<opencv_storage>
<cascade>
  <stageType>BOOST</stageType>
  <featureType>HAAR</featureType>
  <height>48</height>
  <width>48</width>
  <stageParams>
    <boostType>GAB</boostType>
    <minHitRate>9.9000000953674316e-01</minHitRate>
    <maxFalseAlarm>4.0000000596046448e-01</maxFalseAlarm>
    <weightTrimRate>9.4999999999999996e-01</weightTrimRate>
    <maxDepth>1</maxDepth>
    <maxWeakCount>100</maxWeakCount></stageParams>
  <featureParams>
    <maxCatCount>0</maxCatCount>
    <featSize>1</featSize>
    <mode>BASIC</mode></featureParams>
  <stageNum>15</stageNum>
  <stages>
    <!-- stage 0 -->
    <_>
      <maxWeakCount>2</maxWeakCount>
      <stageThreshold>2.8797872364521027e-02</stageThreshold>
      <weakClassifiers>
        <_>
          <internalNodes>
            0 -1 23 -4.2561575770378113e-02</internalNodes>
          <leafValues>
            9.8936170339584351e-01 -9.5081967115402222e-01</leafValues></_>
        <_>
          <internalNodes>
            0 -1 7 3.6071535199880600e-02</internalNodes>
          <leafValues>
            -9.1099965572357178e-01 9.7961753606796265e-01</leafValues></_></weakClassifiers></_>
    <!-- stage 1 -->
    <_>
      <maxWeakCount>1</maxWeakCount>
      <stageThreshold>9.2893403768539429e-01</stageThreshold>
      <weakClassifiers>
        <_>
          <internalNodes>
            0 -1 39 -3.1119316816329956e-01</internalNodes>
          <leafValues>
            -1. 9.2893403768539429e-01</leafValues></_></weakClassifiers></_>
    <!-- stage 2 -->
    <_>
      <maxWeakCount>1</maxWeakCount>
      <stageThreshold>8.4390246868133545e-01</stageThreshold>
      <weakClassifiers>
        <_>
          <internalNodes>
            0 -1 29 -2.1011796593666077e-01</internalNodes>
          <leafValues>
            8.4390246868133545e-01 -9.8095238208770752e-01</leafValues></_></weakClassifiers></_>
    <!-- stage 3 -->
    <_>
      <maxWeakCount>2</maxWeakCount>
      <stageThreshold>-1.1360808461904526e-01</stageThreshold>
      <weakClassifiers>
        <_>
          <internalNodes>
            0 -1 18 -4.4995512813329697e-02</internalNodes>
          <leafValues>
            7.9807692766189575e-01 -9.4117647409439087e-01</leafValues></_>
        <_>
          <internalNodes>
            0 -1 25 -2.6649860665202141e-03</internalNodes>
          <leafValues>
            8.2756841182708740e-01 -8.4904068708419800e-01</leafValues></_></weakClassifiers></_>
    <!-- stage 4 -->
    <_>
      <maxWeakCount>2</maxWeakCount>
      <stageThreshold>7.3696695268154144e-02</stageThreshold>
      <weakClassifiers>
        <_>
          <internalNodes>
            0 -1 2 -1.3307563960552216e-02</internalNodes>
          <leafValues>
            9.2307692766189575e-01 -7.6562500000000000e-01</leafValues></_>
        <_>
          <internalNodes>
            0 -1 13 6.0466323047876358e-02</internalNodes>
          <leafValues>
            -8.2409608364105225e-01 8.3932167291641235e-01</leafValues></_></weakClassifiers></_>
    <!-- stage 5 -->
    <_>
      <maxWeakCount>2</maxWeakCount>
      <stageThreshold>1.9053973257541656e-02</stageThreshold>
      <weakClassifiers>
        <_>
          <internalNodes>
            0 -1 26 -5.9447765350341797e-02</internalNodes>
          <leafValues>
            8.8659793138504028e-01 -8.7931036949157715e-01</leafValues></_>
        <_>
          <internalNodes>
            0 -1 35 8.5292952135205269e-03</internalNodes>
          <leafValues>
            -7.8368997573852539e-01 8.9836430549621582e-01</leafValues></_></weakClassifiers></_>
    <!-- stage 6 -->
    <_>
      <maxWeakCount>2</maxWeakCount>
      <stageThreshold>-4.6375270932912827e-02</stageThreshold>
      <weakClassifiers>
        <_>
          <internalNodes>
            0 -1 10 9.9920935463160276e-04</internalNodes>
          <leafValues>
            -9.4444441795349121e-01 8.5148513317108154e-01</leafValues></_>
        <_>
          <internalNodes>
            0 -1 37 1.1414611712098122e-02</internalNodes>
          <leafValues>
            -8.0643737316131592e-01 8.9806920289993286e-01</leafValues></_></weakClassifiers></_>
    <!-- stage 7 -->
    <_>
      <maxWeakCount>4</maxWeakCount>
      <stageThreshold>1.2682019174098969e-01</stageThreshold>
      <weakClassifiers>
        <_>
          <internalNodes>
            0 -1 32 -7.2001069784164429e-03</internalNodes>
          <leafValues>
            8.3870965242385864e-01 -6.9354838132858276e-01</leafValues></_>
        <_>
          <internalNodes>
            0 -1 8 -1.6309503465890884e-02</internalNodes>
          <leafValues>
            8.4619379043579102e-01 -6.6477447748184204e-01</leafValues></_>
        <_>
          <internalNodes>
            0 -1 31 -4.0564339607954025e-02</internalNodes>
          <leafValues>
            7.3555517196655273e-01 -7.6516157388687134e-01</leafValues></_>
        <_>
          <internalNodes>
            0 -1 36 1.4972804114222527e-02</internalNodes>
          <leafValues>
            -6.7980122566223145e-01 7.4958789348602295e-01</leafValues></_></weakClassifiers></_>
    <!-- stage 8 -->
    <_>
      <maxWeakCount>3</maxWeakCount>
      <stageThreshold>-4.9487224221229553e-01</stageThreshold>
      <weakClassifiers>
        <_>
          <internalNodes>
            0 -1 18 -1.0874053835868835e-01</internalNodes>
          <leafValues>
            8.7428569793701172e-01 -6.1481481790542603e-01</leafValues></_>
        <_>
          <internalNodes>
            0 -1 17 1.0991494171321392e-02</internalNodes>
          <leafValues>
            -6.0559129714965820e-01 8.8444542884826660e-01</leafValues></_>
        <_>
          <internalNodes>
            0 -1 9 2.3131747730076313e-03</internalNodes>
          <leafValues>
            -6.6591304540634155e-01 7.2553384304046631e-01</leafValues></_></weakClassifiers></_>
    <!-- stage 9 -->
    <_>
      <maxWeakCount>4</maxWeakCount>
      <stageThreshold>2.1344208717346191e-01</stageThreshold>
      <weakClassifiers>
        <_>
          <internalNodes>
            0 -1 21 6.2373653054237366e-02</internalNodes>
          <leafValues>
            -5.7746475934982300e-01 9.0476191043853760e-01</leafValues></_>
        <_>
          <internalNodes>
            0 -1 0 -3.8767933845520020e-02</internalNodes>
          <leafValues>
            8.8773643970489502e-01 -5.2788919210433960e-01</leafValues></_>
        <_>
          <internalNodes>
            0 -1 12 1.4716455480083823e-03</internalNodes>
          <leafValues>
            5.3764593601226807e-01 -9.3556201457977295e-01</leafValues></_>
        <_>
          <internalNodes>
            0 -1 15 -2.7758736163377762e-02</internalNodes>
          <leafValues>
            7.9340380430221558e-01 -6.3447552919387817e-01</leafValues></_></weakClassifiers></_>
    <!-- stage 10 -->
    <_>
      <maxWeakCount>3</maxWeakCount>
      <stageThreshold>-6.9560807943344116e-01</stageThreshold>
      <weakClassifiers>
        <_>
          <internalNodes>
            0 -1 28 -1.0054620914161205e-02</internalNodes>
          <leafValues>
            7.5510203838348389e-01 -6.8421053886413574e-01</leafValues></_>
        <_>
          <internalNodes>
            0 -1 1 1.3606950640678406e-02</internalNodes>
          <leafValues>
            -6.1393511295318604e-01 8.1299340724945068e-01</leafValues></_>
        <_>
          <internalNodes>
            0 -1 4 -2.6091830804944038e-03</internalNodes>
          <leafValues>
            -9.3474471569061279e-01 6.0253757238388062e-01</leafValues></_></weakClassifiers></_>
    <!-- stage 11 -->
    <_>
      <maxWeakCount>4</maxWeakCount>
      <stageThreshold>2.0543752610683441e-01</stageThreshold>
      <weakClassifiers>
        <_>
          <internalNodes>
            0 -1 11 4.3173106387257576e-03</internalNodes>
          <leafValues>
            -6.6101694107055664e-01 7.7083331346511841e-01</leafValues></_>
        <_>
          <internalNodes>
            0 -1 20 -6.9876246154308319e-02</internalNodes>
          <leafValues>
            7.6143074035644531e-01 -7.7441835403442383e-01</leafValues></_>
        <_>
          <internalNodes>
            0 -1 38 1.0006178170442581e-02</internalNodes>
          <leafValues>
            -4.8699641227722168e-01 9.7138148546218872e-01</leafValues></_>
        <_>
          <internalNodes>
            0 -1 3 -2.9904645634815097e-04</internalNodes>
          <leafValues>
            6.9601893424987793e-01 -7.3038381338119507e-01</leafValues></_></weakClassifiers></_>
    <!-- stage 12 -->
    <_>
      <maxWeakCount>4</maxWeakCount>
      <stageThreshold>-5.1307052373886108e-02</stageThreshold>
      <weakClassifiers>
        <_>
          <internalNodes>
            0 -1 27 -3.1288727186620235e-03</internalNodes>
          <leafValues>
            -9.1111111640930176e-01 6.9090908765792847e-01</leafValues></_>
        <_>
          <internalNodes>
            0 -1 16 1.3747333548963070e-02</internalNodes>
          <leafValues>
            -5.8049780130386353e-01 8.1360894441604614e-01</leafValues></_>
        <_>
          <internalNodes>
            0 -1 19 -5.1373064517974854e-02</internalNodes>
          <leafValues>
            8.5247653722763062e-01 -5.3140085935592651e-01</leafValues></_>
        <_>
          <internalNodes>
            0 -1 24 5.0232131034135818e-03</internalNodes>
          <leafValues>
            5.7759600877761841e-01 -9.4102418422698975e-01</leafValues></_></weakClassifiers></_>
    <!-- stage 13 -->
    <_>
      <maxWeakCount>4</maxWeakCount>
      <stageThreshold>-2.9127627611160278e-01</stageThreshold>
      <weakClassifiers>
        <_>
          <internalNodes>
            0 -1 6 -9.9618732929229736e-03</internalNodes>
          <leafValues>
            7.3786407709121704e-01 -7.8846156597137451e-01</leafValues></_>
        <_>
          <internalNodes>
            0 -1 22 -6.6933711059391499e-03</internalNodes>
          <leafValues>
            -9.5786273479461670e-01 5.4296755790710449e-01</leafValues></_>
        <_>
          <internalNodes>
            0 -1 33 8.8217779994010925e-03</internalNodes>
          <leafValues>
            -6.5174776315689087e-01 8.1498408317565918e-01</leafValues></_>
        <_>
          <internalNodes>
            0 -1 34 1.3680672273039818e-03</internalNodes>
          <leafValues>
            6.0596543550491333e-01 -9.3774420022964478e-01</leafValues></_></weakClassifiers></_>
    <!-- stage 14 -->
    <_>
      <maxWeakCount>3</maxWeakCount>
      <stageThreshold>-7.4362152814865112e-01</stageThreshold>
      <weakClassifiers>
        <_>
          <internalNodes>
            0 -1 14 3.2230284996330738e-03</internalNodes>
          <leafValues>
            -6.4615386724472046e-01 8.5555553436279297e-01</leafValues></_>
        <_>
          <internalNodes>
            0 -1 30 -2.9848702251911163e-03</internalNodes>
          <leafValues>
            6.9387525320053101e-01 -7.9600614309310913e-01</leafValues></_>
        <_>
          <internalNodes>
            0 -1 5 -5.2552064880728722e-04</internalNodes>
          <leafValues>
            -8.0428379774093628e-01 6.9853842258453369e-01</leafValues></_></weakClassifiers></_></stages>
  <features>
    <_>
      <rects>
        <_>
          0 13 8 27 -1.</_>
        <_>
          4 13 4 27 2.</_></rects>
      <tilted>0</tilted></_>
    <_>
      <rects>
        <_>
          0 13 28 8 -1.</_>
        <_>
          0 17 28 4 2.</_></rects>
      <tilted>0</tilted></_>
    <_>
      <rects>
        <_>
          0 14 8 21 -1.</_>
        <_>
          4 14 4 21 2.</_></rects>
      <tilted>0</tilted></_>
    <_>
      <rects>
        <_>
          0 30 48 2 -1.</_>
        <_>
          0 31 48 1 2.</_></rects>
      <tilted>0</tilted></_>
    <_>
      <rects>
        <_>
          0 33 6 12 -1.</_>
        <_>
          0 39 6 6 2.</_></rects>
      <tilted>0</tilted></_>
    <_>
      <rects>
        <_>
          1 4 8 3 -1.</_>
        <_>
          5 4 4 3 2.</_></rects>
      <tilted>0</tilted></_>
    <_>
      <rects>
        <_>
          1 6 16 12 -1.</_>
        <_>
          9 6 8 12 2.</_></rects>
      <tilted>0</tilted></_>
    <_>
      <rects>
        <_>
          1 7 24 22 -1.</_>
        <_>
          1 7 12 11 2.</_>
        <_>
          13 18 12 11 2.</_></rects>
      <tilted>0</tilted></_>
    <_>
      <rects>
        <_>
          1 8 6 27 -1.</_>
        <_>
          4 8 3 27 2.</_></rects>
      <tilted>0</tilted></_>
    <_>
      <rects>
        <_>
          1 42 16 2 -1.</_>
        <_>
          9 42 8 2 2.</_></rects>
      <tilted>0</tilted></_>
    <_>
      <rects>
        <_>
          1 46 16 2 -1.</_>
        <_>
          9 46 8 2 2.</_></rects>
      <tilted>0</tilted></_>
    <_>
      <rects>
        <_>
          1 46 18 2 -1.</_>
        <_>
          10 46 9 2 2.</_></rects>
      <tilted>0</tilted></_>
    <_>
      <rects>
        <_>
          2 0 30 1 -1.</_>
        <_>
          17 0 15 1 2.</_></rects>
      <tilted>0</tilted></_>
    <_>
      <rects>
        <_>
          2 6 24 24 -1.</_>
        <_>
          2 6 12 12 2.</_>
        <_>
          14 18 12 12 2.</_></rects>
      <tilted>0</tilted></_>
    <_>
      <rects>
        <_>
          3 45 10 3 -1.</_>
        <_>
          8 45 5 3 2.</_></rects>
      <tilted>0</tilted></_>
    <_>
      <rects>
        <_>
          4 18 16 30 -1.</_>
        <_>
          4 18 8 15 2.</_>
        <_>
          12 33 8 15 2.</_></rects>
      <tilted>0</tilted></_>
    <_>
      <rects>
        <_>
          5 10 6 22 -1.</_>
        <_>
          5 10 3 11 2.</_>
        <_>
          8 21 3 11 2.</_></rects>
      <tilted>0</tilted></_>
    <_>
      <rects>
        <_>
          5 21 8 9 -1.</_>
        <_>
          9 21 4 9 2.</_></rects>
      <tilted>0</tilted></_>
    <_>
      <rects>
        <_>
          6 0 37 18 -1.</_>
        <_>
          6 9 37 9 2.</_></rects>
      <tilted>0</tilted></_>
    <_>
      <rects>
        <_>
          7 24 41 12 -1.</_>
        <_>
          7 30 41 6 2.</_></rects>
      <tilted>0</tilted></_>
    <_>
      <rects>
        <_>
          10 1 31 16 -1.</_>
        <_>
          10 9 31 8 2.</_></rects>
      <tilted>0</tilted></_>
    <_>
      <rects>
        <_>
          10 33 33 14 -1.</_>
        <_>
          10 40 33 7 2.</_></rects>
      <tilted>0</tilted></_>
    <_>
      <rects>
        <_>
          17 2 10 44 -1.</_>
        <_>
          17 2 5 22 2.</_>
        <_>
          22 24 5 22 2.</_></rects>
      <tilted>0</tilted></_>
    <_>
      <rects>
        <_>
          18 5 28 26 -1.</_>
        <_>
          18 5 14 13 2.</_>
        <_>
          32 18 14 13 2.</_></rects>
      <tilted>0</tilted></_>
    <_>
      <rects>
        <_>
          21 9 14 17 -1.</_>
        <_>
          28 9 7 17 2.</_></rects>
      <tilted>0</tilted></_>
    <_>
      <rects>
        <_>
          21 20 2 20 -1.</_>
        <_>
          21 30 2 10 2.</_></rects>
      <tilted>0</tilted></_>
    <_>
      <rects>
        <_>
          22 5 24 28 -1.</_>
        <_>
          22 5 12 14 2.</_>
        <_>
          34 19 12 14 2.</_></rects>
      <tilted>0</tilted></_>
    <_>
      <rects>
        <_>
          26 12 12 32 -1.</_>
        <_>
          26 12 6 16 2.</_>
        <_>
          32 28 6 16 2.</_></rects>
      <tilted>0</tilted></_>
    <_>
      <rects>
        <_>
          26 22 4 20 -1.</_>
        <_>
          26 32 4 10 2.</_></rects>
      <tilted>0</tilted></_>
    <_>
      <rects>
        <_>
          27 0 9 27 -1.</_>
        <_>
          27 9 9 9 2.</_></rects>
      <tilted>0</tilted></_>
    <_>
      <rects>
        <_>
          28 22 2 20 -1.</_>
        <_>
          28 32 2 10 2.</_></rects>
      <tilted>0</tilted></_>
    <_>
      <rects>
        <_>
          29 9 18 22 -1.</_>
        <_>
          29 9 9 11 2.</_>
        <_>
          38 20 9 11 2.</_></rects>
      <tilted>0</tilted></_>
    <_>
      <rects>
        <_>
          33 44 14 4 -1.</_>
        <_>
          40 44 7 4 2.</_></rects>
      <tilted>0</tilted></_>
    <_>
      <rects>
        <_>
          34 23 8 22 -1.</_>
        <_>
          34 23 4 11 2.</_>
        <_>
          38 34 4 11 2.</_></rects>
      <tilted>0</tilted></_>
    <_>
      <rects>
        <_>
          40 3 3 14 -1.</_>
        <_>
          40 10 3 7 2.</_></rects>
      <tilted>0</tilted></_>
    <_>
      <rects>
        <_>
          42 10 6 25 -1.</_>
        <_>
          45 10 3 25 2.</_></rects>
      <tilted>0</tilted></_>
    <_>
      <rects>
        <_>
          42 16 6 24 -1.</_>
        <_>
          45 16 3 24 2.</_></rects>
      <tilted>0</tilted></_>
    <_>
      <rects>
        <_>
          42 17 6 21 -1.</_>
        <_>
          45 17 3 21 2.</_></rects>
      <tilted>0</tilted></_>
    <_>
      <rects>
        <_>
          42 31 6 7 -1.</_>
        <_>
          45 31 3 7 2.</_></rects>
      <tilted>0</tilted></_>
    <_>
      <rects>
        <_>
          42 32 6 16 -1.</_>
        <_>
          44 32 2 16 2.</_></rects>
      <tilted>0</tilted></_></features></cascade>
</opencv_storage>
